-1.389303476664337795e+06
8.566906226429989329e+05
-7.253978326687797671e+05
6.706938079529276583e+05
-2.115776887923151953e+05
4.564794725488279015e+06
3.218308063938157633e+06
-2.080392136788107455e+06
-1.010775920735121705e+07
4.898440999470965005e+06
-5.280089355648305267e+06
-4.506104012204858474e+06
6.338321798758368008e+06
-1.930478257039160701e+06
1.581318304732675664e+06
-4.044238140087033622e+06
-2.643870729677144438e+06
3.293192790855479892e+06
-1.120040905489228200e+06
-3.500536347941744141e+06
5.201607033893395565e+05
-2.575867348451707978e+06
1.418877833219485357e+06
2.550118271783707198e+06
-2.398381057335671503e+05
7.068628307195249014e+06
-7.191992891813570168e+05
7.384066570150520420e+05
5.397057614451369271e+06
-3.665405997403758578e+06
-6.416127232423330657e+06
1.972631213476999197e+06
-4.724318884823355824e+06
4.478468113690460101e+06
2.379353844852893613e+06
-2.520308539842237718e+06
-5.996218490862616338e+06
-3.696917207089317963e+06
4.635382906798402779e+06
3.266070767881277017e+06
-4.254200604500740767e+06
5.502213512268892489e+06
1.648808536574556958e+06
1.618869103915418265e+06
-8.085005088399107335e+05
-3.495831029349693097e+06
-8.182903796098462772e+05
7.451291624736626400e+05
3.190761727564420085e+06
3.000975648494090885e+06
-1.540790011991681531e+05
-5.193188187163427472e+06
-3.432320930894802790e+06
1.775511640305051580e+06
2.669338791168611497e+06
-2.478535059030724689e+06
-1.707108452202509507e+05
-6.459242781969766365e+05
-3.490266247129194438e+06
3.506281255012231879e+06
4.433559575116126798e+06
-6.214798027156773955e+06
-4.590917133478623815e+06
-1.323465687136335764e+06
-8.711163735172335058e+06
-1.060568727535734884e+06
-4.901932995623152703e+06
3.436654199475719128e+06
-2.326398833206445910e+06
-7.550838673489058856e+05
-3.443893935684199445e+06
-2.207197417334205471e+06
-3.298124906685427297e+06
-2.992671287888126913e+06
7.033512076824037358e+05
-1.831364160000387637e+05
2.980642558728605974e+06
-4.119711842935213353e+06
-5.912061091125297360e+06
4.501553006077440223e+05
1.295478164879544638e+06
1.448066241444158833e+06
-5.367509084776132368e+06
1.851310321833773982e+06
-9.484232778720484348e+05
1.779286815343259135e+06
2.301547854122693650e+06
-2.775582221666974481e+06
1.119206560734555824e+06
4.002589530883186962e+06
5.951626319718263112e+05
3.569203477464891970e+06
-2.480480125709495973e+06
3.431292225512716686e+05
4.274450516813660040e+06
-2.427829389560446609e+06
-6.397267787393074483e+06
-9.999812818052298389e+05
-1.855771250769129954e+06
4.652312726170587353e+06
-3.707067148613151512e+05
5.425583423222595826e+06
-2.070303222158916062e+06
4.977639979856639169e+06
8.486723879918819293e+06
-1.688412664377990877e+06
-1.868390032418875722e+06
-5.448110856916184537e+06
-1.347943939695513400e+05
-1.498250557446335210e+06
-1.853591316211783793e+06
-2.013637883570371778e+05
-2.321444027282766066e+06
-1.390780819036815083e+06
3.362289838800170459e+06
2.557090084800986107e+06
2.816283676785421558e+06
3.770446372654672246e+06
-2.080453768358517205e+06
-3.546178180731215514e+06
1.063709885310762795e+06
-4.072403670624244027e+06
-1.635444014727877686e+06
3.442635946460340638e+05
2.652210920430490747e+06
-2.249413100925774314e+06
-2.482742537298015784e+06
6.070954711309204809e+06
4.346862178379882127e+06
-4.080062695557108149e+06
3.361230988635747693e+06
-6.035667035287410952e+06
-7.777617390000310726e+06
-3.132118316918711178e+06
-1.311872304509928683e+06
3.686978200096489163e+05
-3.860463822763602366e+04
9.644057522271665512e+05
4.875621592253952287e+06
-5.989548974665291607e+06
-7.004236729310759343e+06
6.704931012384482892e+05
2.771606188844147138e+06
3.123135857292015105e+06
-4.756334326552913990e+05
-7.768497737311572768e+06
1.151057087439343566e+06
-4.376587813920526532e+05
6.034856960765514523e+06
-5.530855236002366291e+04
2.342340173532844521e+06
4.300476584006086341e+05
4.658598978274214081e+06
-2.010225783105569659e+06
-4.837981373883853666e+06
2.347473065032207523e+05
1.830950758469155990e+06
7.404064561099192360e+05
2.008910878002880607e+06
3.054410117093105218e+05
-9.028720150007671909e+05
2.560276777571223676e+06
2.208192182596445084e+06
-4.523850762686137110e+06
3.516066803200850263e+05
4.927104843585193157e+05
-4.209743292412791052e+05
-8.194330711688706651e+06
-2.767833399901901837e+06
5.435594488647243008e+06
1.313026721171221696e+06
-1.892116132596932352e+06
3.419323211127314251e+06
4.469469888650004752e+06
4.176570327679011039e+06
4.108921827208124450e+05
-8.541198300634915009e+06
3.124258178053728188e+05
-2.863692626875115093e+06
2.987419303779891226e+06
-7.902545006796539761e+06
2.749396400921769906e+06
-3.371414898432740476e+06
5.249275521829002537e+06
-4.234870001291755587e+06
4.866288714228207828e+05
-5.210686946843246929e+06
1.779280175091966754e+06
1.043732760112974048e+07
-2.677028537347534206e+06
-1.794502871483677300e+06
4.878827280243439018e+05
-3.239764776483824244e+05
2.602032062334609218e+06
-2.495835210967384279e+06
-9.880865922764008865e+05
-3.078362814822464250e+06
-4.585750027894448489e+06
-9.333919673799196971e+03
1.300944278860326856e+06
5.276079220799089409e+06
4.451065586349912919e+06
-3.706801116807593033e+06
-2.969115823306159582e+05
-1.382146103155115852e+06
-3.026315177313463297e+06
-2.822690778506304137e+06
3.752832387916569132e+06
-8.264593113395384513e+06
2.039874316827291477e+04
4.314868275334505364e+06
2.307325437082227785e+06
2.663606890216560103e+06
-3.403629137377782725e+06
7.964432660338102141e+05
2.961465231098573189e+06
-7.547926977549460717e+06
3.355461563596210908e+06
4.936752230557549745e+06
3.401482199569216929e+06
2.587353054465668392e+05
-1.116718099252145272e+06
-3.197152365271988790e+06
9.712214341452422086e+05
-3.672387946529253852e+06
2.722150156790769659e+06
-2.388310818007065915e+06
-2.766898240805292036e+06
7.466254193378518103e+05
6.463962412521646358e+06
-2.980445843881762587e+06
1.807859080342596280e+05
-2.388455893234094139e+06
-1.765367628001953199e+04
2.437443247022562136e+05
-2.142883206204046495e+06
1.383968869060679106e+06
-9.385473109953412786e+05
-1.212409886260672705e+06
-5.036951818235202692e+06
-2.250766789395455271e+05
-2.639854216501771938e+06
3.423384761557482183e+06
1.713180112939120736e+06
-2.245003437395811081e+06
2.354926040717590600e+06
-3.671041796704497538e+05
-4.853535679511106573e+06
1.511236749788966728e+06
1.837902369779060595e+06
2.127763018307953142e+06
3.750928454791718163e+06
-1.048611590452159941e+07
-2.989448017200396862e+06
9.735864675503054168e+05
6.773770927606023848e+06
3.456829470867505763e+06
-2.044161626372689614e+06
5.445392861888301559e+05
-3.786837623100675177e+06
-1.458466547095450340e+06
5.553739154160341248e+06
4.839770799455326051e+06
-1.480683770325117046e+06
-2.656151780124990270e+06
1.975291187282879546e+05
-2.666381604865460657e+06
-6.029410509724124335e+06
-1.787900236078605521e+05
-5.920055120461064391e+06
7.576732824521531584e+05
-1.299433569873560220e+06
6.084067689025265165e+06
9.218816335598303704e+05
2.452349795596213080e+06
-6.657227872061061673e+06
2.683093359460844193e+06
-1.357766639958434040e+06
5.575457920195133425e+06
-7.371331976862199372e+05
-2.080287060791721335e+06
1.429519998434302630e+06
-8.982538085372173227e+05
-3.214077114528651349e+06
1.891303993444292108e+06
7.002535045970003121e+06
-2.112617222824478056e+06
-9.604649226695131510e+05
4.295438242965050042e+06
-2.175137201133502182e+06
6.963331246529642493e+06
-1.143221592143986141e+06
-7.118585380761728622e+06
-6.126789856576048769e+06
4.270972976126755588e+06
-1.839188786461356096e+06
8.296609902035485720e+05
1.285797747017494170e+06
-7.234599297385178506e+05
1.655979868585102377e+05
-1.855936719115462620e+06
6.844694139505711384e+06
3.481162630181383342e+06
1.187403460590454517e+06
2.433859096783954650e+06
-2.686566160614663735e+06
-1.014709866382763372e+06
-4.290748975006774068e+06
-3.079187269578969572e+05
2.615292999512907583e+06
1.193947034590652911e+06
-1.955147603746536479e+05
3.146289619294981007e+06
-7.847105782320302678e+05
-7.446781911147686653e+06
-3.350496666108428501e+06
1.494974208184181713e+06
2.656308648858622648e+06
-5.947513881346492097e+06
2.881960557696001139e+06
-3.633685870974167250e+06
2.293437996113569825e+05
3.744011654599467292e+06
-5.428963609380502254e+06
9.241944849255345762e+06
-2.600416486123189330e+06
5.491835283096773550e+06
-1.973241431838368764e+06
-8.341823019163897261e+05
3.606983522329579107e+06
1.009181638269974734e+06
1.692478054441250861e+06
1.330265483420695644e+06
-3.711640154591314495e+05
-3.149042144405288622e+06
3.728534419396488927e+06
2.219753599637073930e+06
-2.139720852999459894e+05
9.904518053589006886e+06
2.986321861067687627e+06
-3.277830482147784438e+06
6.629795310417588335e+05
1.157379002790266182e+06
-2.481300257945234480e+05
2.829503795258349739e+06
-6.167526407215853687e+05
3.769352021370142698e+06
-1.925324105320248054e+06
1.574229992097156355e+05
-4.024563153929107822e+06
5.750019482789111324e+06
-4.592610016768758185e+06
6.026332355818504002e+05
-5.646912871636657976e+06
3.213980405718293041e+06
-6.326264643288794905e+05
-3.801484707438447513e+06
-9.323914362411797047e+06
-4.568614051429009065e+06
-7.588493448457197519e+05
-1.137775254073713673e+06
7.702883537249673391e+05
-6.584696878612110158e+05
-7.424421973209253047e+05
-9.497498361807765905e+05
7.720709223630608758e+05
-6.364133129817957990e+06
2.835373465877114795e+06
1.542556499162265332e+06
4.684022928552747704e+06
5.967229560772526311e+05
2.748602443025324494e+06
-3.722571441810832825e+06
1.179494688719286816e+06
-5.255845626434233040e+06
-3.835348982249006629e+06
1.455914440226424718e+06
5.895067694725759793e+05
-6.754339640836771287e+04
-3.831432671879496425e+06
3.020686086716390215e+06
-8.481384696138739819e+05
5.670282178003634326e+06
6.588368378527763998e+05
1.348046422421682393e+06
-1.564136888189479942e+06
3.324142932741261087e+06
-5.747525868681458756e+06
5.438857039943261072e+06
-1.912300390546725830e+06
-8.274267997697461396e+03
8.358232391741098836e+06
6.444176076862704940e+06
3.053360355794006027e+06
-1.964183447668241570e+06
4.571455752815864980e+06
-3.150560339565522969e+06
3.305309563199172728e+06
-7.411671043269016081e+04
-2.769950672680423129e+06
-2.009067567530140979e+06
-1.141453560997093096e+06
-6.648757453176962212e+06
2.160313775621016044e+06
-4.837741831375623122e+06
2.219376911881946027e+06
-5.338898458618184552e+06
-9.532500603665049421e+05
3.015306868582539726e+06
-4.188866708606242668e+06
1.576962143654644024e+05
5.058594230957978405e+06
-4.901839139735072240e+04
-1.883171323695739498e+06
1.053774146815712005e+07
5.282560778418480186e+05
-2.183174084579092916e+06
4.380386976444241591e+06
-5.247615463872433640e+06
-2.014574789269396570e+06
3.749056361033631954e+06
2.950413610257495195e+06
-4.790740023546360433e+06
3.518550378685921896e+06
-1.118564356849853648e+06
-1.329136895438231586e+05
-2.520614642260860652e+06
5.387812103715960868e+06
2.918492763025849592e+06
-2.137179756036106031e+06
-4.978499642606730573e+06
-3.468147154341724701e+06
5.111470230930021498e+05
-2.003543079064358259e+06
1.287188209670724900e+05
-6.209361192831250373e+05
9.669510449380456703e+05
3.996557687346169841e+05
8.191908245065469528e+05
-3.830414197459267918e+06
8.057737964060752420e+05
3.654150700101192342e+05
5.839398008638569154e+06
-1.794086308117714943e+05
3.942575754220300354e+06
4.708075332102629356e+06
-3.447032411034171004e+06
-2.776579349419525359e+06
-5.810856641938198358e+06
-1.158548109357004520e+06
4.780079189511548029e+05
-3.329537147749927361e+06
-2.181188891057984729e+05
-6.016936591845924035e+06
1.225228684277799446e+06
-3.277989969393514097e+06
-2.339552768974329811e+06
3.248860521722611971e+06
3.364342241909426171e+06
1.199529859127982520e+06
1.019748425381032750e+06
3.309894548833976965e+06
2.413281744926428888e+06
-7.412054843380962266e+05
1.711780778728309553e+06
-5.032560767268138006e+06
6.266995360799948685e+06
-1.532707061314453604e+06
-1.482721650348900119e+06
9.731400102417001035e+05
-5.663245627316521481e+06
3.143136218484454323e+06
2.723226890564488247e+06
6.966069025094893295e+05
-8.063007843328430317e+05
-9.837005831382263452e+06
2.198389593676775694e+06
3.719398507839373779e+06
-5.946905055980066536e+05
-8.157851883398568025e+05
-4.608396320932068862e+06
-2.091085799081033794e+06
1.997938557930355892e+06
2.432877632919955067e+06
-6.180163167340146378e+06
3.185174315644251328e+04
-2.112788604208778590e+06
1.580847603107579052e+06
-5.761244127421253361e+06
-7.021159304647741374e+05
-5.116401775127968751e+06
-4.498054251166752540e+06
-3.800983035287012812e+06
5.309089412829301320e+06
7.777734761169943959e+05
-5.254233638637030497e+06
2.285733168302954640e+06
6.670533827984480187e+06
-1.182177534105738159e+06
-2.781925209328610450e+06
-5.050318430375534110e+06
8.029246551408597268e+06
-5.505977663387582637e+06
4.658905063156012446e+06
1.733987363819824765e+06
4.742248126770406030e+06
-5.520115382539703511e+06
-9.881661709172736155e+05
-1.737763313873144798e+06
3.674782796047543176e+06
1.872334993037141394e+06
-1.924977644365794957e+06
-6.794923019145539962e+06
-3.175120902715370758e+05
7.532325656870198436e+06
-6.156427099451921880e+06
-3.377418007644799538e+06
-1.709311819327481790e+06
1.468728783099041088e+06
-2.149478300983066205e+06
4.454856524438010529e+06
-4.642579745569549501e+06
2.229105280416162685e+06
7.302915113901157165e+05
-2.305966796869406011e+06
-8.521361045301536098e+06
6.267522787355028093e+06
1.669281563495854381e+06
1.955412120558325842e+05
3.080412617609296460e+06
-6.287052623963345541e+05
-1.092141212054150179e+06
-2.948763099895221181e+06
-4.015006132161712274e+06
3.359969312118471600e+06
-3.452592605298176873e+06
9.609801807116301730e+06
2.429033517050528433e+06
-2.742880494641702157e+06
1.641414695077765500e+06
-1.431017796824216610e+06
-2.825438521682515275e+06
1.846474548441719031e+06
-1.194784402981678024e+06
2.271568705022210255e+06
2.462537248347956222e+06
6.201016676089965040e+05
1.016717224498310243e+06
-3.282025401770923752e+06
-4.868215760785805061e+06
-3.886435864874455146e+05
-7.349288147179046646e+06
-5.596042301034221426e+06
-5.732930126436080318e+05
-2.258422411488770973e+06
-2.666486832011984196e+06
-3.443280999141759705e+06
-1.114330208135991124e+06
-4.308002236682330840e+05
-1.589798386921423720e+06
1.750764998393292772e+06
2.205617442807178944e+06
-1.527094190733083291e+06
1.068156912582331104e+06
1.242603890557495470e+05
8.296770890654859249e+04
-5.068606256550660357e+06
1.457184724431259558e+06
-3.919114074925602414e+06
-1.425170344158273074e+05
3.479907043994168751e+06
-2.184907042135482654e+06
2.326063056673251092e+06
-7.293687838823381811e+06
-1.646059118386776885e+06
-2.351277893106712028e+06
-1.912395843149323249e+06
-1.641317666945064208e+06
-6.054116297603961080e+06
-2.608773394719581585e+06
2.693489813955308869e+06
-4.480759434496324975e+05
-1.357576323763824534e+06
-2.030907550712175434e+06
1.632582483753006440e+06
-6.366052744925681502e+06
2.181403280877974816e+06
8.843054962043983396e+05
-2.432490902714598924e+06
5.099139447283559479e+06
6.538003445723993704e+06
3.123572644725647289e+06
-4.622923160419994965e+06
-6.775923555609673494e+05
1.071304611278667115e+06
-2.307942739778615069e+06
1.660583075509489514e+06
-4.729587012263449840e+06
2.192989278677805560e+05
3.362049677238727920e+06
-3.178092055737200193e+06
5.055511559550240636e+05
1.321939590708092321e+06
1.794702054609596671e+05
1.861717308937194524e+06
-7.468367598404291784e+05
-6.069957072490244173e+06
2.787240673867090605e+06
-5.503050153990615159e+06
-3.677764914684865624e+06
-3.373470499978196342e+06
5.107647249786607572e+05
-3.382836107132426929e+06
2.745978779285672354e+05
1.249952284967083397e+05
-5.861105892412287183e+06
6.456235118891130202e+06
2.953021104963326827e+06
6.637181678117576987e+06
-6.602526800056844018e+06
8.203497894755934365e+06
1.605173058276973199e+06
5.909074559169271961e+06
2.082789674052165821e+06
1.851560395763126202e+06
4.458501481345707551e+06
4.219973513256766833e+06
-2.984981143064283300e+06
-7.286582899054511217e+05
-1.763795355852278415e+06
-7.015392665006290190e+04
2.943801476260894444e+06
-5.067010904964185320e+06
-8.632157352119576186e+06
-4.351746213653067127e+06
-4.694433685252074065e+04
3.054948793289956637e+06
7.823248769271920901e+05
1.857342334922726266e+06
-5.326933552755227312e+06
-3.929509202793402132e+06
1.188423588204368949e+06
4.202236511626605061e+05
7.524184059045613743e+06
-3.427623234320528805e+06
6.102744226653700753e+04
-2.009281585847353796e+06
-7.799804516071366146e+06
7.833759253488151589e+05
2.747083926941610407e+06
-1.443552537550673587e+06
-2.668028989405313041e+06
-3.446380255575944204e+06
1.302292190600975446e+05
3.174557841710757464e+06
-2.434876642489838414e+06
1.276228989619504195e+06
-5.490659527609802783e+06
2.181607612578571308e+06
3.418584857093554456e+06
-5.452178750321068801e+06
-4.529606186438966542e+06
1.326728508298594039e+06
-4.581010638756892644e+06
-4.246145524114241707e+05
4.604084480114165694e+06
-4.673715956340918783e+05
1.670055176557965111e+06
-4.683683940613172017e+06
-1.267750132424590643e+06
-2.652531258902883157e+06
-1.930794163223560434e+06
-6.437455881365198642e+06
4.269088661474636174e+05
3.461845428360353690e+06
9.091150239639774663e+05
-4.342183137068230659e+06
-4.603735204201581888e+06
1.176014420322615479e+05
-3.955985533628078992e+05
-2.357522997817401309e+06
4.441265578885710798e+06
-1.187270997289156221e+05
-4.393444454447252676e+06
8.886115789470802993e+06
-1.451347464356626384e+06
3.145501807035775855e+06
2.983973766935218591e+06
-2.766342176842825022e+06
6.563514057335001417e+05
2.075731155192644568e+06
-6.965484635003145086e+05
8.400274373805210926e+05
-4.028198849308237899e+06
-6.963596112291359343e+06
-2.463094494885905646e+06
-4.796509794777300209e+06
5.521620203054670244e+06
1.006917331879070401e+07
-7.239150243751446251e+05
9.842622689043749124e+05
1.722949301038084785e+06
-7.383473838756614365e+06
-2.073124764967827592e+06
2.059761025387085465e+04
3.038773468402112485e+05
6.850924101061453111e+05
5.630597515227805125e+05
-3.592914800910878461e+06
-8.549087337084590690e+05
-6.099741461034922861e+06
7.251336587097060401e+05
1.184238244834306417e+06
-3.638827576637855265e+06
-3.338819985858558211e+06
5.031997028583266772e+06
-4.196501545485145412e+06
-3.456783597789241467e+06
2.052745600875819335e+06
1.546770398387277732e+06
-1.009858999722554814e+06
7.193451551053336821e+06
2.510158582649436314e+06
4.004864508772650152e+05
-5.420853980211914750e+05
2.974516492129850667e+06
2.503202923145672772e+06
2.768993531306175981e+06
-2.336086589659560123e+05
1.468232328280962247e+05
1.751327573137838393e+06
-3.518088208383386955e+06
-1.761637836685907096e+06
-1.256358406763269333e+06
3.606530025830496568e+06
-4.123561911631678697e+06
4.030592244461298455e+06
-4.324907994721600786e+06
-2.818151478842693381e+06
5.395386695098002441e+06
2.264389971915070433e+06
3.555212679770474788e+06
-1.507488440092944307e+06
1.739234528639592696e+06
-4.691521038049788214e+06
3.733947289576018695e+06
-5.012216228633115068e+06
4.928042117226092145e+06
-2.099088386696079280e+06
2.995014895502116065e+06
1.298664541806611232e+06
6.400362664875014685e+06
2.686346757363686338e+06
2.218639887072373182e+06
-2.958857730350036640e+06
-1.725866844410551712e+05
3.109275281651431229e+06
-3.355710788799657486e+06
-6.614380661053519696e+06
-4.837614790306115523e+06
-4.214294075781597639e+05
3.021563546928772237e+06
-5.858473543034351431e+06
1.036394858074942953e+06
-1.632384193801105022e+06
6.568786943113413872e+05
4.505812846438483335e+06
-2.345113387910163030e+06
-1.450469012060424313e+06
-1.555602726106582442e+06
1.402571712569065625e+06
-1.770679786600203486e+06
1.402875978599577909e+06
-1.012708476653960533e+06
-2.189120096624280792e+06
-3.507212876548331231e+06
-8.415477568759460002e+06
-3.768564764205551706e+06
-6.558817849798412994e+06
-2.198490647165802773e+06
4.552692088265097700e+06
-2.779945094867048319e+06
1.303850511037611868e+06
8.552383045411549974e+05
-4.365927780507922289e+05
3.123145285995176062e+06
3.343501574285896961e+06
3.314206533029053360e+06
-6.748070760740742553e+05
4.766489517768130638e+06
-5.865016325419441564e+05
1.116606989884572569e+06
1.038855084112882148e+06
-3.412232860450699809e+05
1.534666795718896901e+05
9.790911712405435974e+05
3.342518111419545021e+06
-1.358344681018401869e+06
-5.894377796298208646e+06
4.522858108659661375e+06
1.480757128404921852e+06
8.934187617928730324e+05
-3.626090423318158370e+06
1.465217877413365757e+06
7.856855938275372609e+05
-2.233610919175158255e+06
-2.278593924476419634e+05
-3.830734756776547059e+06
-1.300140837103505852e+06
6.610342758342209272e+05
2.178746803019392304e+06
1.013046090354357613e+06
-7.092702215988154523e+06
3.273197116525309160e+06
3.066749383403262589e+06
4.122805330547717749e+05
-1.684040774840993341e+06
1.200485496670287375e+02
2.392389894877082203e+06
-2.735430439638075884e+06
-2.822766339345551562e+06
4.675311648238938302e+06
3.097894583312671166e+05
-3.685194393024613382e+05
-2.384859560224553570e+06
-1.460992877328688046e+06
-2.026846645447077462e+05
5.442648166582234204e+06
-1.955621948438705411e+06
2.231435811921976041e+06
1.335067737724859966e+06
-3.167031368654910009e+06
1.443589667016388150e+06
3.378078776471666060e+06
-4.270406086346185766e+06
-1.509994287561369711e+05
-5.623569292158194818e+06
2.574899335222745314e+06
-8.798194517146925209e+05
-5.534874847350943834e+06
4.641778763347640634e+05
-5.832578709458514117e+06
-4.076647133806801401e+06
4.065326209233535919e+06
-1.303604431752012577e+06
-1.292109701581259287e+05
5.703580925205005333e+06
-2.421705506686005276e+06
-5.555122142953432165e+06
-5.924044988112051942e+04
-8.423012555492329411e+05
5.811388697294524172e+05
3.434935612562299706e+06
-1.738715125473016175e+06
2.904167062367314938e+06
1.687016105382743524e+06
1.062847739108064212e+06
1.554667878111119382e+06
3.684271971413937397e+06
-3.438722741928230505e+06
-3.181578969884907710e+05
3.353742235453518573e+06
-3.098560288942671381e+06
2.868408562173904851e+06
6.877456596782261040e+05
-2.609254291412761435e+06
-7.613753310287521221e+06
2.502452222494516987e+06
3.386968197876824532e+06
-7.085160097027946031e+05
4.453510610018069274e+05
-3.404990720095201395e+05
-4.874705434956112877e+06
-1.046206825878016185e+06
1.133904161300567677e+06
-4.095065315531887336e+03
2.736315707256563939e+06
-6.746255898218311369e+06
2.494149631160894874e+06
-2.806918210788188502e+06
3.588108224068823736e+06
-9.780203151400330244e+05
-2.992569462123518810e+06
6.398847705149192363e+06
-1.806589963499046629e+06
2.716866539910521358e+06
2.738228698964789510e+06
2.889999284225794952e+06
6.397109435968269594e+06
5.743980772200685926e+06
-2.753359744261931162e+06
1.205819920810823794e+06
3.475488411394096445e+06
-1.912092924454327673e+06
3.702708312093843706e+05
8.288127306301171891e+06
-1.771339492690145504e+06
-6.280153981761095114e+06
6.120391336119771586e+04
-6.048554590960029513e+06
-4.994210609766226262e+06
8.083241813415571116e+06
-1.463833309939723928e+06
4.283029842156192288e+06
3.308236764000619296e+06
1.703275133767903317e+06
2.183543917351425625e+06
-4.534564400299252011e+06
-7.665838490454616025e+06
-8.234371019233004190e+05
9.173463720136719057e+05
2.868689269502087496e+06
1.241847087051536437e+04
-4.113731604921461083e+06
6.572805957725333050e+06
-3.032781368029498495e+06
-1.479826838522834005e+06
1.963143856675028335e+06
-1.524693565588259604e+06
-4.816530998668215238e+06
-2.496247040025114547e+05
7.699415883255257504e+05
3.536256370110530406e+05
1.855092348596102791e+06
-1.162273328072658041e+06
1.686500419143703068e+06
-4.329298943239705637e+06
2.401439179710637778e+06
-4.145971114224297460e+06
-4.750336902261365904e+05
-3.304560032683005556e+06
-3.096306573347900994e+06
-5.074541711921695620e+06
-1.171800480334308697e+06
-1.699115943633694667e+06
8.229670953132688301e+05
-3.686016936112367082e+06
1.847751323202720232e+04
-1.849459326982150786e+06
-1.966399628914341098e+06
1.636456493258792907e+06
-1.690735605560132302e+06
1.221186499911692925e+06
2.710016533353324514e+06
-1.531343093170737615e+06
-3.986831964393837843e+06
9.750646671898902860e+05
-2.686841844619610347e+06
6.890351353109803051e+06
-1.465695999726260547e+06
-7.019887742688153594e+03
-9.264430726578383474e+05
4.608418285727411509e+06
-1.870075933174784761e+06
1.946716545227328781e+06
1.229838669325444847e+06
5.365789147090231068e+06
-1.378453606308927527e+06
-7.222305144763120916e+05
1.576252584608566249e+06
3.329950163040760905e+06
-3.591260633567535318e+06
-2.141867322905610781e+06
4.872174372446113266e+06
1.134630470795888919e+06
-1.586342802226845641e+06
4.595079706960758194e+06
5.469992456229076488e+05
2.505445480964538176e+06
2.412875169742955361e+06
4.936359809094406664e+06
-5.805031924894445576e+06
4.817056957426004112e+06
-3.005857750669416972e+06
4.014325289532265160e+06
-1.111016145510361093e+05
1.344079764012295287e+06
1.377242246809497010e+06
8.167777428650239017e+05
5.560181426552315243e+06
1.081853298589732265e+06
-3.255957692818415817e+05
-3.397556254499073606e+06
-2.143351969379139133e+06
-2.885957620110516902e+06
-5.859274463146292605e+06
-7.551985530465663178e+05
6.573746564547250979e+06
6.193525669551782310e+06
1.677745955205915729e+06
2.937553155948541127e+06
4.756144662183702923e+06
-2.162885807988240384e+06
-1.727184454745104071e+06
-2.633270353257477283e+06
-1.202346482762261759e+06
1.509891500936246011e+06
-6.339156832212580775e+04
-6.663860354373938404e+06
-2.990785059660128318e+06
1.578170251368110712e+03
-1.349097490208998788e+06
-7.045334845319800079e+06
2.475506950499975588e+06
5.380812891147521324e+06
-8.652856859900986776e+06
-5.410352800543989055e+06
3.999413978783164173e+06
4.184161806472344324e+06
-3.793073350742407609e+06
6.884047106481071096e+05
-2.163835758455092087e+06
3.148893638850555755e+06
-6.932250445117122727e+05
-2.379786885188742890e+05
-4.181146481491651852e+06
6.046405792552141473e+06
2.244682295722932555e+06
-2.438366368139860686e+06
2.447388105673042592e+06
-8.587415469607776031e+05
7.394995199846329633e+05
2.696339812031475361e+06
1.018611660016203532e+05
